{"layers": [{"input_biases": [[0.0], [0.0], [0.0]], "activation_function": {"type": "sigmoid"}, "input_weights": [[-0.268492538260582, -1.349682589632162, 0.567585624007119, -0.12051947467897843, 0.04675986206370952, -0.8772794792942727, 0.5013594856653952, 0.2173507883014832, -1.2988144571823614], [0.15881509121138743, -1.1210267908876466, 0.7196653492802675, -1.5651054270159444, 0.9600205491568884, -0.540597880632148, 0.9966566535061248, -0.2145308501020031, 0.05593060037562247], [-0.6046881597783147, -0.7345750534134541, -0.3223553600137997, 0.65801012271969, -0.8867710508943137, -2.26249534312659, 0.11994906244595471, -0.3280489740419657, 0.8846146941369998]], "nr_nodes": 3}, {"input_biases": [[0.0], [0.0], [0.0], [0.0], [0.0], [0.0], [0.0], [0.0], [0.0]], "activation_function": {"type": "sigmoid"}, "input_weights": [[-2.9379005469896646, -0.06353839837569393, -0.023010436484482078], [-0.7741775935685018, -1.9302247813473465, 1.5937276095020272], [0.8171087437985459, 1.1318900237619196, 1.1728908403163731], [-0.08889027007433072, -0.3344915875814366, 0.9513641964692467], [-0.2892367805895453, -1.941957497561694, 0.28553219626133935], [-0.11459166835161043, -1.0338171884025393, -0.6152044658260409], [0.553966809924726, -1.3710411933618218, -1.0209882506732202], [-1.3127814974712484, 0.5395862876602012, -0.21644056447252089], [-1.5785014290712662, -0.05806066505325945, 1.176240019500369]], "nr_nodes": 9}], "nr_layers": 3, "nr_inputs": 9, "nr_outputs": 9}