{"nr_outputs": 9, "nr_layers": 4, "nr_inputs": 9, "layers": [{"nr_nodes": 9, "input_weights": [[0.7442725875404292, 0.031153311145479482, 0.47378334497108276, 0.5471637821000536, 2.152690237706581, -0.2717766718274838, 0.18469129048310082, 1.2176566838740808, 1.6436730498336831], [-0.2596958476604323, 1.523009966528044, -1.1776628556313566, -1.9758567302897676, 2.3796562429639665, -0.354665246050869, 0.16254911421190205, -0.1384784978855315, -0.28883675123176095], [0.05815012664911816, 0.6594191092259212, 1.760012502596403, 1.1801313203353425, -0.6548672003657582, 0.5133258906837146, -1.9289555284031845, -0.939336052559388, -0.18394268895444285], [0.7363181022958352, -0.6100587179267786, 0.21991269596751778, 0.3302891564290283, 1.1983049213231698, 0.9262715034651828, 1.7147148631543696, -0.9489556994030189, 2.8368797614662777], [-0.4765989052121408, 1.0375429029764707, 0.17630581266270504, 0.3123545944079219, -1.1710916859308376, 0.021115135937808713, 0.3135746613206055, -0.8352582151609448, 1.2968269126025578], [-0.40413248844134997, 0.7813702228732459, -1.5125891097920614, 0.3388751287927833, -0.6859916520247813, -0.5930411166126526, 0.43237923469900197, 0.33506052660068864, 0.6310748063085831], [0.46649442760040677, -0.5679951844200496, 0.5281311732470308, 0.8260152639681194, 1.1917491932052595, 1.3509219797714485, 1.8733608542488969, -1.284550453923894, 0.8043178671004696], [-0.7865364285916411, -0.13422656356614657, -0.8578582499620612, -0.5086479983590331, 1.767449998287518, 1.9778715111158618, -0.02578883486641482, -1.2222832009983282, 0.09880410732702098], [0.8354731923272968, 0.9051340746384433, 0.5603045109716231, -0.4604109946058933, 0.13519885080573968, 0.9430362971668143, -0.6618456459783758, 0.2359363661018109, 1.7094178142135854]], "input_biases": [[-0.25791460056621296], [1.2232528391881743], [-0.15979186060268416], [-0.09823623690210388], [-0.0017742058011308496], [0.12350985676166801], [0.12717917577448146], [-0.48795162085875465], [-0.02588759006654169]], "activation_function": {"type": "sigmoid"}}, {"nr_nodes": 9, "input_weights": [[-0.6567672892743601, -2.6143739118689133, -0.1411098753379907, -1.1197074636356985, 1.2456649951450334, -0.016574328212994156, -1.0792896627677266, -0.26047003313374595, 0.20623877498687607], [-0.6195735138761177, -1.237150848751947, -0.004281052264981238, -0.7157803777953939, -0.8928805071124373, -0.6927616698639318, -0.5991485720825466, -0.2184261536652925, 2.1208167502470068], [-0.019788083484403557, 0.6043965968694608, -0.7604849843812297, -0.2599728738637016, 0.6563415467980384, -1.7967054467412789, 1.9880165017214522, 0.663271912343764, 0.530272823119974], [1.2646936212816826, 0.3429806685807736, -1.7944309689196554, -0.5286914907379352, -1.445442659168757, 1.5062507761207768, 1.053134030306442, -0.23556318956251454, 0.16740071046687796], [-0.1423800497681875, -1.441181589818926, 0.9758725386944712, -0.7891634180332998, -0.8451045101972181, -1.0019012322116763, -1.143250931037743, -0.46799634489797665, -0.9459619009577112], [0.8065364907321719, -1.2368296909041965, 1.1852944675772328, 0.2314720229638128, -0.238357563243092, -0.1770247674104436, -1.8556300919758129, 1.1273702233342988, 0.3428851846626746], [0.7821333113952388, -1.6988884571979057, -0.6772476739352655, 0.3511436044373244, -1.9868322877054774, -0.8570051505969943, -1.9586316251002556, -0.5790845858910019, 0.01901794789681218], [1.2378155882944455, 0.18806847959091078, 2.4549164617771506, 0.8721119866225461, 0.013706321695545007, -0.9476703144385957, 0.891241902120506, 0.6106520652942007, 1.6229026838542597], [-1.7731623622607793, 2.270799956411954, -0.3291755554671633, -1.2017856510085823, 1.537359284605193, 0.8020079911510049, -1.4296663635995706, -2.101647867807194, 0.7135760668420513]], "input_biases": [[0.23408641667889107], [0.09231626747671794], [-0.052002713161212036], [0.2390371830891709], [0.048603990718474], [-0.47056997200283135], [-0.07963024570295839], [0.2514923353748446], [-0.013041578472151625]], "activation_function": {"type": "sigmoid"}}, {"nr_nodes": 9, "input_weights": [[1.0464101685791278, -0.8158206207519317, 0.585424022906556, -0.718526308220965, 0.2975141379413199, 0.3653207928477913, 0.09108665600112072, -1.3264997938838625, -1.433020848991896], [-0.5778729351400019, 0.2721161493032782, -1.454416226476307, -0.6952576285252592, -1.3110700696512163, -0.16317142916968835, -0.5337045270635542, 0.07705260556309011, -0.49212680419375443], [0.512509493215411, 1.9968981768290677, -1.3327182173547698, -0.8382253000311884, -1.0998245726254994, 0.16300828180682356, -1.0362286449763376, -0.3957475906956135, 0.3336279513167671], [-0.7395617725983659, 0.34558755957983023, 0.858205981278903, 0.36418846089055185, 0.33845339566905247, 1.794734622006401, 2.2478033042918253, -2.4582551583517764, -0.8062826973445005], [-2.4749488199499985, 0.5306235495475793, 0.0741836470473627, -0.4452098678902934, -0.6814207240298409, -0.29888609523663523, -1.9111750226492081, -1.0233984125485551, 1.1287015282710253], [0.8806296654070082, 0.16361879859342768, 0.4905593996230047, -3.2116696779188967, 0.317563726268707, -1.2976025554367756, 1.0842409869538692, -0.7224194392644753, -0.5222925061262843], [-0.32489757247590445, -0.8660268935543844, -1.618661671059994, -0.9085826053583242, -1.697786746508098, -1.7421587669546938, 0.35093240741588866, 0.1752449311289137, 1.290345430511468], [-0.819229337697519, 0.9380275026968257, -0.8501762917323584, -0.5987230687390414, -0.5977788186291766, -1.369221060740397, 0.47298476082583, -0.6605482800231599, -0.8175345927702424], [-0.27002418440128517, -0.5535862473812748, -0.8369229339835761, 0.7186079240199299, 0.9325424065019811, -1.533085205311819, 0.8920338139125625, 0.2304123095587295, -1.4067371954213972]], "input_biases": [[-0.11245785642000461], [-1.0797076470992024], [-0.813382454180953], [-1.812170514657814], [-0.04326335949196482], [-0.8695321968864324], [-0.4386575315112101], [-0.6670435771310229], [-0.48773420754703334]], "activation_function": {"type": "sigmoid"}}]}