{"layers": [{"input_biases": [[0.7540734874835366], [1.3360467543474617], [3.118770782853411], [-0.6827778600371462], [1.3266616848802781], [0.19333135831745676], [0.8817172811097863], [-0.4124749845888593], [-1.65289406808875], [-1.662481254565664], [2.841881100713899], [0.5247640771733032], [-2.2146667255304058], [2.751608658739627], [0.648789477811159], [0.6155159415886398], [2.6677773742936], [2.3496645730237864], [-2.07107627796558], [-2.241799957058867], [2.603868458611325], [0.2767353048455897], [-1.512797229319307], [2.5704248979649815], [1.4535007914464082], [-0.37090193864265714], [-0.8258336714738187]], "input_weights": [[-2.5051522638494923, -0.3101628951544965, 4.7320721389150915, 0.14783663210634115, -1.6071768176067047, -0.12067613073802161, -0.36058962660195093, -0.5228369309242157, -1.755944306289423], [-0.7081737187850815, 1.1254810356801672, -1.3079228981815678, -3.0920725209246864, 0.4277015530848904, 0.07438664327852969, 0.3785848202588853, 0.7997605348278773, -3.419605114161267], [5.194740999905799, -1.6740541378093932, -1.3868539543416127, -1.021662163185152, -3.167546200451026, 0.17355832340386193, -0.09461533615197568, -1.8746171744419258, -0.1438139481069422], [1.0458408728774844, -1.4434769119582112, 1.9812530389060976, -0.7847215958421601, 5.799261485621615, -0.8619941620502989, 1.0073483616534775, -1.2814207365515144, 2.286896993761931], [-1.6285493811456693, 1.2577402891952354, 3.3992033778190494, -2.29193857131818, 1.8783573109842062, 4.445235224601507, -2.8403382476613057, 1.0295089383282807, -2.0185821847393868], [0.8565251879181351, 0.4301608109157758, 0.4677269998949379, 1.4871527996449985, -3.9771145996685244, -0.845746920083099, 1.632071514244861, 0.6331398792634587, -0.6031000297139342], [-3.3370978872823103, -1.1874677428667846, 0.6110742886869285, 2.271121301397511, -0.08840394214057226, 3.236861632712408, -1.9421947802999717, -1.209726311901863, -1.1696068012414642], [-1.1776677862123384, -0.27183430362362687, 2.6534568045786884, 0.6191215483771683, 0.46962284995278414, -0.9700512549064935, -2.595203291008102, -2.195403806428367, 3.6837359084377597], [-0.8834111363328855, -0.9496467244528323, -2.5660736778934115, -2.5679624527147977, -0.22874200681086462, 2.407077755678284, -0.8659914169210092, 3.110530584013382, -0.1655360571314558], [-0.22668319478856147, -2.906033202406862, -2.9924832604236955, 0.9621288157895403, 4.814650600988412, 0.2533726912362028, 2.6879305014113415, 0.9351596037734765, -1.779329442229896], [0.9006152670649785, -0.7382481813403353, -1.8842228125576732, 2.0236541390692167, -3.957866477715934, -0.2552834927310472, 1.6274615726124155, -0.07138455958230369, 0.2877881746839922], [-3.240076749623648, 0.13081012103919593, 2.3933122737570733, -1.4474710743385022, -0.36629940266813776, 0.8218877929631341, 0.04831799842767582, 3.364818743897437, 2.181590535333052], [1.2147032104078355, -0.1059765401220932, 4.1971191590001355, -0.9415108028918899, -2.5083293293452034, -2.2817926760987532, 1.0595005708286653, 0.054373081444302675, -0.2683457667666661], [4.0467631400621435, -1.1314605829682147, -0.004054608302446718, 0.7491371115950504, 1.900929279488379, -0.31818080693561474, -1.5347761377633655, -0.6801300572365819, -3.605850545547257], [0.07693245243159104, 0.3490202519919248, 2.886895975937088, 0.9466846420081146, 2.0121164715188273, -1.7171454163723268, -3.014008458213885, 0.764892979791687, -1.0026539125736675], [0.27055613771613496, -0.9179477619834258, -5.493581154982106, 3.119289438814617, 0.17545529846617838, -0.23643455863304194, -1.0608466053654984, -1.14906601533794, 3.6831966833433314], [2.6339387780663257, 2.844360728409322, 1.9163448280306998, -2.0539385285889984, -0.01176709734470243, -0.6996626370032469, -3.3963431527617765, -0.6809660509203364, -0.17581341989820068], [0.7191875912518952, 1.1555280929486687, 2.570330336666058, 1.0567011621559772, 0.9260693665164949, -0.2181346884224034, 0.81438331969366, 0.6585507383652935, -3.7172334099336544], [1.4230547233297208, -0.38750100539548765, -0.31480665996885165, 0.5737514452028514, 1.5931596122877982, -0.6922427662926958, 0.4191221158175714, 4.662502352374021, -1.096575392897066], [-1.068831851582426, -2.938701768012342, 2.52282384455629, 0.9408450105891422, -1.0567962876345958, 0.28538919359462755, 1.4015742958957023, 2.148047514418208, 1.4835920602786437], [-2.3555329527747233, -0.04970009733942084, -0.8007233850934554, 0.4799910214108743, -1.831549294930652, 0.267327058741343, -0.9726544846285785, 2.7308246403306353, 3.4609714498070487], [0.23444969710093483, -0.255840674413621, 3.068221040626657, -1.6515675653185358, -1.1747010510501108, 2.022883103850816, -0.0100844424623687, -1.5194741680525037, -1.7661072407673764], [1.8556609499833985, -1.37193415213341, -0.7925830898333489, -0.21983562028010178, -1.2866565928521614, 1.9117129650291365, -3.5302532282480312, -0.7290844025556577, -1.1663414544662676], [-0.5284808099553551, -0.8928323254569924, -1.0493044469793185, -1.1318833215795032, 4.986174641577202, -1.0058321162287753, 1.5640917428105048, -0.037739929689607994, 1.5395975567283207], [-0.8364853947079176, -1.2045604577306286, -0.27194500644207487, -1.470835622730284, -1.1319031673975435, -0.8089432017134223, -0.4041162919482928, 0.7271565843472821, 4.007382705259979], [0.8247932405374029, -1.1176870924593367, -1.228074164190628, 1.8405970419967312, -3.109532995807916, 1.0181164532233693, 2.5355397529367485, -1.1795890428430547, 3.706698850145992], [0.9244259736778784, -4.6424620467367355, 2.884497921568971, -2.0282160547705272, 0.16393068011854756, -1.560562350502477, 1.2529555116256506, -3.2648630086834856, 0.9652433340976376]], "activation_function": {"type": "sigmoid"}, "nr_nodes": 27}, {"input_biases": [[-0.48382162878637325], [-0.744166235996215], [-0.3080652174906205], [0.013188636189349082], [-0.32118312117579223], [0.06515274720679656], [-0.47838320701130926], [0.039231143864910785], [0.5016361075032783], [0.9998223145875976], [0.28550177955186473], [-0.16017946566338104], [-0.803326228991461], [0.42032218417958667], [0.23954661913068234], [-0.38031017465143024], [0.4928008780913119], [-0.21750749222839266], [-0.2633064772096853], [-0.36151244275736877], [-0.6334086849837113], [0.7122580280225833], [-0.12606007958873508], [-0.29839551922524954], [0.2105327229536672], [-0.6531819342826816], [0.12121086181535994]], "input_weights": [[2.6610420707020825, 2.842799896905267, 0.07142132009544815, -2.530639710092461, -2.1722272591601923, 0.25856788608463543, -2.042079778507802, -3.281877595262968, -1.1802408205389139, 1.803807211643448, 0.43172402046251085, -0.7167803885208568, -1.3572323815209308, 0.7082430344337437, 0.2251635914033737, -0.11204604085852289, 1.3762802764390571, -1.1223313402577266, 2.414971760013892, -0.9372844511714254, -2.623336609525556, -1.5607032202108877, -1.920160833121084, 1.5703591686311797, 1.9482684229252663, -1.484589511203109, -1.6452577846237828], [-0.3792588582172485, 0.3846644080036516, 2.5749811619233554, 0.6628181909058571, 0.06348418628037687, -0.2770931598391903, -2.6224631582592264, -0.6595585257984892, -0.8864494286667293, -2.2488486039715423, -1.7655553791090954, -0.9614874269828105, -2.831164411803365, 1.4059461229396626, -2.7213326588197906, 3.127423017253618, 1.9652901231193365, -0.48613827131123544, 0.5202100063713258, 0.4033655332365755, 1.0888474747792298, -2.507396519790566, -0.4795986277485578, 1.020505525606855, -1.919506777289505, 0.7265930434227973, -1.8635320869833867], [-0.414446672232852, -1.0137304959620135, 2.5387522934855156, -1.307577920650516, -2.657019193006779, 4.431934259742028, -1.5392369778431312, -3.5084897319193997, -1.1427107457080563, 0.7830376719293337, 2.160730050500485, 2.4451916650082994, 0.8213533368596174, 3.8113400500454757, 0.7408640014040723, -0.24580178668448704, -3.0535468411009745, -2.161961232344132, 0.764911337731937, -0.5556099986668586, 3.6781027096538907, -0.40194131180542475, 0.5419871174188069, -0.35260058188041954, 0.33647302128869117, 2.9601033986913308, 0.3747277566196685], [0.8772106177436744, -2.092000269550252, 1.7054014494148566, 0.9299771441793986, -1.2578161122326903, 0.33472460811312044, 1.2698915276271219, 1.8250775936196626, -1.6719695632395373, -1.673843761915972, -0.479016013825106, 0.6786240069385016, 0.2604866841331295, -1.2616674475600915, -0.5755075240737393, -3.3932394845824785, -0.8684216506287266, -2.0347041300948985, 1.7481077352142647, 1.6835441855071271, -0.9602742804205947, 0.21890342277115282, 1.0147455796554503, 1.55025859706101, -0.5492618512561863, 2.844498136930333, 0.14524340547973996], [-3.596529049261548, -0.7703679655448711, -1.3127226539013295, -0.09213505116589911, -1.6569760363644184, -1.9161666464347658, 0.29967452278701645, 1.3648066089733168, 0.11795690754388596, -0.4653313824952491, -0.8459394064671081, 2.8624814994451357, -0.10744939909605035, -1.191468635780832, -0.5656355874039417, 2.2293298738282217, 0.20515153517958692, -3.302852086239259, -2.6614123275426014, 0.0704175188404539, 1.8620101907116093, -1.852066045195501, 1.3254331548455696, -0.34515994429793345, 2.8718779579474947, 1.8227014538849344, 0.13907822479336515], [-2.307504396598025, 0.24258512703100488, 1.4283489737639663, 0.08539455446762047, -1.7987770389163926, -0.11048141175455332, 0.016672864728630308, 1.6210056957625814, 0.4085606795439215, 0.679024074374153, 0.12500962261626541, -0.28115657825930424, -0.033727866382311386, -0.2082433891024144, -0.3137230546746889, 3.504524808508475, -0.7497607617780896, -1.7491248778954065, -1.3470999377614126, 2.8709122387491215, 3.808438616782137, -2.1549006953022816, -0.46542894210655245, 1.570163438090091, 2.554265688513296, 1.1581493201877933, -0.1792742702622735], [-1.689761893786384, 0.07375271554688882, 0.12969013801517054, -3.252979931442436, -2.2516717988718016, -0.7017785349664516, -1.8340152487919057, 0.9345803590297623, 1.1470889093242116, -1.015817733048314, 0.2991896933016381, -0.58524449760845, 2.27981793148105, 1.2321545130405558, -1.3529013184098075, -0.11644770024684227, -1.1574317500970581, 0.46784161825087783, -0.19712320861893853, -0.32037805328216995, -2.1422994154631922, 0.7746448353825197, 3.041059296395826, -2.1340534029040366, -0.7767815921265794, 0.3955114230472221, 2.887300645947408], [0.4822883347362317, -0.5420249070436185, -0.7033467744938376, -2.4852818026401096, 0.4544062781308516, 0.8205377674211556, -1.6253708933094546, -1.7758022474452866, 0.0923142069800187, 3.658255685387704, 2.382865101205934, -3.190198457818391, -2.018698787886078, 1.583193816845041, 1.566975384566124, -1.3187857302653345, -1.1832732605355476, 0.0810009852157057, -0.5861997299180097, -1.578732341674269, -0.7091769869706153, -0.18448509399488733, -2.3947938433858913, 1.8006169711126294, -2.3607089419938476, 0.006576367175748053, -1.4045761552041458], [1.8737596180793195, -1.9863958533330148, -0.4336196811608795, 1.5971115967822196, 2.3621464742964347, 1.1101399673618542, 0.15688346126502498, 2.116712417431162, -1.2615257808010976, -1.1444122809166697, -3.04021423571962, 3.3177913783081743, 1.110383300402665, -3.11560022285726, 2.3448457927557578, 0.2753132237854361, -0.7973347998025254, 1.8624455439686969, 0.23339504982815587, 1.6817346979390628, 1.7685823132034264, 1.4404952363488055, 3.2374218348396027, -1.1382115816966607, -0.2183039607583556, 0.8237539205301851, 0.3795966618286904], [-3.404972842213659, 0.19139675660067054, -0.18610371644352866, -1.6410031240870733, -2.2719545696939387, -0.33023262661408886, -0.557651552552023, -1.249491307280573, 0.9277686465891414, 1.5795273659168272, 1.495834540851423, -1.2420999855040478, -3.1584830347639024, -0.5219407339041413, -1.9027094694508802, 2.789055710352217, -1.6258772087521258, 1.9144339278414868, 2.5085506358037906, -1.2561077441378883, 0.5430619217776167, -1.5542090235292345, 0.2237792243266347, 0.3546350505520165, -1.147591199851372, 1.36126468489647, -2.1592412697226226], [0.9122865290404042, 0.2578834429491985, 2.8476639038711986, -1.2774227470122843, 1.9031135041792815, -0.3276755445648636, 1.6743484415394123, 1.7611211327091445, 2.6448633995695996, 3.431715198834451, -0.30761267657209, -0.8710554616954564, -4.839810654909769, -0.32326494215152324, 1.0635442631662406, 0.7146248645921053, -1.9215771205214784, 0.08707244048306646, -0.10844940150524311, 0.8606446803829153, 1.610690294535898, 0.09819945169165378, -1.7480964743623029, -0.1801370870877464, 0.4379118918463503, -1.647437019843815, -5.4208195080539845], [1.4196291167704416, 0.13296835388020048, 0.47824276796032433, 2.802442186783255, 1.588950477461202, -0.9503923543663318, -2.3602025476404846, 1.2024909914321016, -2.212484935322314, 1.7514110959955072, 0.9514514654029458, -1.4667728985734596, -1.2264719588096067, -0.5576975337089772, -0.05979172858488955, -1.404442778997349, 0.8760821509425092, -1.0109964058623728, -0.36016351468652313, -0.11021377221985008, -0.9193867267089041, -0.26488226965325756, -1.2256971907048428, 0.3544579262280495, -2.1961298961011093, -1.0918078444372619, 1.7714366545572644], [0.6923805195579115, 1.79788552730761, -1.2025048325348249, 0.28805329907238486, 1.8878701975837184, 2.0647003958196066, 1.7448380717274887, -1.1648107287926612, 0.2362708785480873, -0.15860207696492523, -0.6869200070424576, -0.45886528027122797, -0.22336647401193363, 0.02471789889578544, -0.9728801275633978, -3.240890261157572, -2.2582479487772527, 2.095418737411407, -2.085082143934909, -0.5457974739897957, -0.9507431535720233, 2.8964466214428315, 2.074440299553264, -0.5757344262761, -5.720811400137694, -0.008918930020323323, -0.4177026046340891], [-0.5444910537544896, 2.381331431198784, -2.051585790612058, -2.832353111986878, -3.3187776339953916, 0.8786052056702776, 4.450613266744693, 1.7477269354981382, 0.9511650616584645, 4.576425487935168, 1.055941856072166, -3.2567834896796777, -1.9480874536820085, 2.178098187065564, -0.027629649626115502, 2.270232821595109, -1.5091178337090494, 1.4600005117918646, -1.452354959337185, -1.3636350371502828, -0.3183106321257171, -1.2824168537854377, 1.9342252421992137, -0.9536183273748043, -1.210031791294473, 1.0367483768213506, 0.24068071061746998], [1.391968511551458, 0.5516583997670125, -4.152660588735076, 0.33337631640610105, -1.4002249654992165, -0.39634178224249433, -0.27868229333144384, -0.30003133274430266, -1.7179615444168441, -1.3059292762706307, 2.8625949828972495, -1.2109658069735127, -2.1859094666813554, -1.8922755758675254, -1.8390496593452008, 1.6190919954694099, 2.7700194610479474, 1.4997769749875114, 2.4197199753022405, 0.8243865993978519, -2.4599701060592425, 0.8326712562018709, 2.61801801891412, 4.100790318161947, -1.5159715052061842, 1.2062205677058966, 0.009064475313100596], [1.2925291292733319, 0.3210140836057656, -2.7469798129877967, -0.28095564545067, 2.448097926044178, 2.2491741398484293, -0.20255685520504527, 0.31879088595388183, -1.9054420846150089, -1.292377993932491, 1.7269248533914576, 1.7273191216912425, 2.3022229158715173, -2.0165668895221516, -0.9005014731981703, 1.780593896185703, 1.7817991849320025, 0.02516947687481601, -1.1376975971438776, 4.027740754139693, -1.9479752460205255, 2.2406442613055115, 3.0954203026718905, 0.9238067076441319, -0.8377332486605453, -0.6749453620887775, -2.1400168161309714], [0.9487339270602971, -1.849996530220692, 2.320508400864344, 2.716874467414196, 0.1943473692810835, 0.364092049590808, 1.672835684134222, -0.4474669313848428, -0.34954262096371874, 0.7086891895772548, 1.5257492188756019, 0.8961313278321067, 1.4101538107413623, -0.41652990737399087, -1.1135411575213272, 4.19870874808365, -1.6270846074171215, -1.1778352378877446, -1.9276782097511926, 1.8463043040525033, 0.8459441119910032, -1.761068542001886, -1.083346929109834, -0.15643832437468785, 0.516016915882778, 0.7654741151238328, 1.3818325700884175], [0.7174086158943573, 0.07419785089759458, -2.5525189382986393, -3.285435923255798, 0.18650184578704654, 1.4885400392846733, 2.0296560608722016, -0.46228757149309796, 0.44127947106477605, 2.0834318172949637, -0.692785976859732, 0.861925503921549, 0.9395219613583693, -2.8150603381320876, 0.1724850157860675, 2.409371376653532, -1.6486942227856423, -3.110036558885504, -0.06936839796414662, 0.8715340593059907, -0.16152854329242738, -1.8456406335785107, 0.16558151812623156, -2.440485258108858, 1.8749824668899913, 0.5443239520508897, 1.0461035521727815], [-2.033842405628668, -2.0933327279852842, -0.9853496262233374, 0.18112086373958294, 1.0602146271429977, -2.159973053802209, -0.6101145912306636, 0.2795661511676417, 0.7555721615406927, 0.15583434399705956, 1.4395983112222042, 1.0810541330310024, 0.07898466846036037, 1.1054234330733315, -2.012015845921328, 2.6155629496738864, -1.516597077634427, -1.6907176030665878, -0.2954486236508901, -0.6353230858558906, 1.4477205836648166, 1.3067305193498948, 0.47550851165802166, 0.36306555959731945, -0.5695400748335907, 0.5381686212769686, -2.9621742703505434], [-0.8195817712094798, 0.8537611912238406, 1.0051979720821889, -0.9681906582314229, -0.08210570212205225, -0.689093862266975, 0.1283163097035213, 0.06262331265183041, -0.8110564521700007, -0.447182003658691, 0.056519920667742876, 1.934061620273014, -1.572911321968445, -0.4306280456058821, -0.854972810537465, -0.40260224963805263, -0.6785422897757857, -2.263174817044619, 0.25768106054892226, 0.9314689696115828, -2.2187212325497754, 0.17143004516830201, -0.7746740933348312, -0.9364733868304828, -1.2246325950813355, -1.1497880109524565, -0.36133787202321566], [-0.9871341978858513, 0.685405786594608, -0.04498852897378984, -2.096016786134227, -1.516245719003048, 2.854111005100212, -2.3685691326108524, -1.1359224204539713, -1.441769708618817, -1.9934591986926873, 1.962633834332402, -0.6231299511091959, 2.074050776755922, -1.9779562696412034, -1.368999458310778, -1.9758741014845207, 0.6102089603942392, 1.5523122244618095, 0.4042234726262461, 0.930346845629041, 0.5303694461043941, 0.28250867596530915, 0.7494945135302876, -4.433654922106616, -0.11017880975033946, 3.115552599529769, -0.13295093659021678], [-0.0403023290519822, -0.7330389876402787, 1.5268729602924855, 0.96386973584825, -3.2390149789794376, -1.7092094300966298, 0.6342901081005352, -1.5065371055831653, -3.224475109590493, -0.38045879536129223, 1.7237417446287784, -1.1874122831908505, 0.17691736578819942, 2.1885935341132803, 1.734147055518401, 0.08828057994096529, 1.0103358668548117, 3.045788154326124, 0.0897192418947936, -0.8996254872618132, -0.4051046599659283, -0.7370784858548028, 0.053444652207877294, 4.070153492985753, -0.951807596291712, 1.1641268787715708, -1.2782790406343898], [-0.5012134090447434, -1.5847907637604466, 2.00515083881032, -1.403197197550129, -0.6646928523146002, -1.6469175255258561, -0.17065082568539464, 0.23014470128548234, 0.5551201892568908, 1.3848890772820397, 0.7970417587098899, -1.2363755663672285, -1.2091658796525047, 1.0678965801371911, 1.532814572512181, -1.1490806247452947, 1.8794210841315442, -0.1647319255497732, 1.010385017978465, 0.4638897715541741, -0.2864243696951163, 0.5466997909269415, 0.41957126319371346, 2.2628029415454014, 0.04411475385514319, 2.0099297165703196, 0.9706569402227683], [2.1376620768804653, 1.6135758498742125, 0.2927237363966266, 1.1435591684055073, 2.742658243520752, -0.652422238904106, 2.8003252888270858, -0.12250270523741465, 0.931991252969755, 1.8330818609500978, -2.961061278631276, -1.1352702883362709, 0.7941399997092032, -1.1107541687710578, -1.0530027502280646, 0.6529442972087397, 1.3124993063495356, -0.7386131420027, 1.1964878347672927, -0.05759779586917542, 0.5780149683197379, 0.28022162115528154, -0.9793251191544055, 1.0667247297364872, -1.6752358431720984, -1.0766096139888168, 0.935053831508505], [1.2499536794544013, 0.5777536307542234, 0.710720359082569, -0.2196373948347437, 1.2971737733031043, -1.4955263085420185, 0.7186175625847746, 0.2578412623102356, -0.3060964736596952, 0.9340214133323992, -1.2964026494248668, 2.227092902993937, -0.16426693140464196, 0.8429924232054692, 0.7289270912168051, -0.5550714094936109, -1.8342389294084092, 0.4242139086585551, -2.861374137850557, 0.763631197992934, -0.49867746971725024, 1.807069754360954, -3.3945978974214936, 1.7150041372208384, -0.7493114315960585, 0.8900171301827342, 0.9814271564787719], [1.4688354370813632, -1.5575071111202308, -1.2037231698660809, -0.029934979284235323, 1.0274004488617265, -3.552456864307473, 2.9989854643763416, 1.2842368376089461, 2.049227204155499, -0.2538985240258425, -4.097104337095399, -0.8060595302451583, -0.10268059859473012, -0.4174326963547234, 2.1102740515818392, 1.8861433810229216, -3.0271824489314105, -1.1130267649504324, 1.9288815068804015, 0.17747151418882112, -1.2189364160657887, -0.8769690542123674, 2.8262482581288864, 0.3468094744243472, 0.9667950364119579, -1.9140609723723925, -3.0700554561863114], [2.5214423849981404, -0.209113391118694, -4.1447112019039, 0.05001170087133765, 0.9838555337903246, 0.19945322141511831, -0.0812225602425166, -0.3340965941280175, 0.08654337538105612, 0.508837614357722, 1.1718722990678658, -1.9464970914978954, 1.7342618558153153, -3.21845876375629, 0.2272306163516349, 0.3233687564183852, 1.3349032722862644, 1.0270304175614116, 3.066514920524327, -3.2868954432683752, 2.499782949260159, -0.3691542970202869, -0.21781015498563258, 0.8203635818476226, 0.4997889496241813, -0.5663862296572123, 0.3402127880621453]], "activation_function": {"type": "sigmoid"}, "nr_nodes": 27}, {"input_biases": [[0.7851686878203191], [-0.3832562125773173], [-1.5504741310153103], [-0.49395888012046085], [-0.3478474051091954], [0.15806701749081964], [-0.535284760060312], [0.9630892199968835], [0.153343423496956]], "input_weights": [[-2.8892346652925966, -0.7934140526657688, 0.320143712996319, -1.2674045699064318, 4.431588149407572, -2.304449265070265, -0.6500499929866753, -1.0071310852599962, -2.635345134868597, -1.275242291921051, 3.3884870236333375, 2.246108691116304, 3.606552428535654, -0.21727384533881966, -7.484464584643605, -4.666069499768566, 1.2154505881005466, -3.4260479590039052, 1.0194240168741409, 0.14001007184404018, 5.187324092119806, -1.3848901719687072, -0.3073686121440114, 0.8196232941639962, 3.7498833577950026, 2.775407545874875, -3.3755846031154912], [-1.4032756293989985, -4.9791747109287945, -1.595228411781305, -3.6844308565633406, 2.425498646673616, -1.8248488818528765, 3.066758722853469, -2.577055536549233, 1.9938872727380916, 4.387191469177319, -4.760162762565912, -0.6886047057284971, -1.176879759931667, 4.148678256873809, 1.0236368948976544, -4.753450642422738, -5.338171345386868, 3.442269556339232, -0.9498078673262552, -0.2227108509832737, 2.6478239585453442, -0.6520336504164943, 1.5644896611316794, 0.552160548530324, -1.185243186919462, 1.3018915383468033, 4.324018737496326], [2.82686295433712, -4.205637315765322, 2.852804339272664, 1.5100874462691993, 2.72758847350318, -4.815136113616116, -0.050740202485836494, 2.000151787948573, 0.10069203297899647, -5.763978050375226, 5.774296049727305, 1.012578983924585, -0.48435617870790165, 3.22086180896559, -0.40129963762531484, 1.4168954461174204, -3.345009553686553, 3.796500563494817, 0.7499358870861443, 0.07690100657644916, -2.8284968194843567, -1.930084576055236, -2.341353506390175, -1.2759984049342479, -3.2807088066000403, -0.5023869534331243, 1.0476584124346913], [-1.966431774405696, -2.8704792373452626, -4.748140445093449, -0.9735074938763233, 0.05828353506330247, 0.7447163000737816, 2.992342855079852, 0.8488183018105283, -3.7248623416378988, 3.2309833873137883, -2.558310003581747, -1.6594507492884, 1.6664515941822573, -4.9784850457621985, -1.1132690083897099, 2.2416702019561487, 1.681376227154626, 2.194367373065384, 1.9441641708576987, -1.6612753476148907, 2.733494795543531, 3.392242475392529, 0.11048465051088133, -3.818873618657989, -1.720793612423006, 6.886220844597263, 3.167159212517845], [-4.802186509090671, -0.356818033002227, 4.644786619047083, 1.5630929100396567, 2.390279980429212, -0.0060284389866816, -0.0734959061554292, 0.4553018818858076, -2.646438623491352, 1.9365500840225212, -6.2502203005935115, -2.0191155619125203, 3.24357028995078, -3.2365179044579953, 2.090058548614487, 4.7498814258748006, -1.1050072582292567, -4.8210612442018475, 4.820480916753543, 1.3990227059515015, -8.675873949037452, 1.3900666931548304, -0.8493895446499913, -2.465918262051275, -1.864852581601189, -2.4604977283404534, 0.6001556061908007], [6.878707740122926, 1.7126421987770923, -0.29509467185834254, -1.4054712742112907, -0.969604766159835, 0.24153825587764008, 1.630927210239185, 2.2040427472255533, -4.779139791829232, 1.6640401720723297, -1.8982506203778151, -0.6497041945456946, -4.902822641251048, -2.178447343044512, -2.358790409269376, -0.5329875952139674, 1.0560803329557766, 2.9687393299644143, -0.548589845839947, -0.14552095872679516, 4.523787313324043, -5.247452296010653, 0.4336314765563954, 3.209977785051256, 0.6905226679949042, 2.558423209119917, 0.9642764283913658], [-1.293737421144431, 2.330229684658225, -8.307923496911306, -0.16462969787051793, 0.08605584297619996, -0.09976460076522951, 2.064366005436102, -5.508029018580282, 2.5055899100843058, 4.195345021809642, 0.768504013919833, 4.16003297433759, 3.2989343389423755, -0.5057612222274639, -1.4054168108502783, 2.725036714453557, 1.7098814436568743, 0.7190263248019748, 1.0752857784180572, 0.7766891684097279, 1.12959036405868, -3.986158012698076, 0.0756576341471461, -0.43891131575825715, -4.634464196566855, -4.223539285228849, 1.1652225583990659], [-1.5489174016748597, -1.7644188709967317, -5.2766630482749415, 2.0277522332939024, 2.2171665543840278, -4.038404591172566, 4.761834019632474, -0.3324475660563154, -0.032902206532621506, 2.8327808490353994, -2.1309597516932404, -3.410440878976678, 0.852321345869515, 4.109981581124689, -1.4394081848965536, 1.4092655702739514, -3.7935810428961263, 3.46486454382053, 0.015471532622847428, 0.033871057138432914, 0.25870208387070903, -1.1691603009700309, 0.9582305254901873, -2.448992408744997, 3.6671201446511144, 2.0891093495530115, -3.4723537343835145], [-0.7278417671225675, -2.184536172895184, -1.2130443401153546, -5.091858607010069, -7.538510264333655, 2.9094602532543634, 3.1934053428405753, -3.875475285736828, 1.9160197944189086, -1.7640919520759892, 0.7661845053905777, -0.2300021188362303, -6.09362982803964, 3.253744539360108, -1.7788807771962187, 1.779515986440109, 0.7455859338517793, 1.234312692614296, -0.8354471436633419, 0.15659803625277713, -1.2911251639002888, -0.7226847801494154, -0.66935888138005, -0.9744668135692123, 0.03636568368052068, -1.0390057818619496, -0.09608844583680615]], "activation_function": {"type": "sigmoid"}, "nr_nodes": 9}], "nr_layers": 4, "nr_inputs": 9, "nr_outputs": 9}